encog,BasicNetwork,java,3.4.0,1,1589926730578
[BASIC]
[BASIC:PARAMS]
[BASIC:NETWORK]
beginTraining=0
connectionLimit=0
contextTargetOffset=0,0,0
contextTargetSize=0,0,0
endTraining=2
hasContext=f
inputCount=50
layerCounts=235,2,51
layerFeedCounts=235,1,50
layerContextCount=0,0,0
layerIndex=0,235,237
output=0.0029424769,0.0056251549,0.010732736,0.0049840029,0.004646615,0.0041433565,0.0046703508,0.0041102932,0.0062780293,0.001162532,0.0040458738,0.0075008025,0.0025793635,0.0061612392,0.0057225664,0.0046859619,0.0041366611,0.0057817315,0.0055852074,0.0043624656,0.0036978793,0.0037182869,0.0032456326,0.0050415901,0.0032182615,0.0053541943,0.003191381,0.0044466995,0.0033148784,0.004005992,0.0078236151,0.0024217912,0.0026857922,0.0051271289,0.0040983465,0.0034763478,0.004064453,0.0020383432,0.0035569689,0.0029979592,0.006202471,0.0031158725,0.0046758451,0.0065626398,0.0075627623,0.0055016379,0.0030805951,0.0047128792,0.0068613728,0.0034300671,0.0063872965,0.0033182566,0.0080048505,0.0021934489,0.006086758,0.0020179559,0.0029792251,0.002402876,0.0039781869,0.0033839996,0.0040249316,0.004340886,0.0066559642,0.0057067243,0.0046505154,0.0106128298,0.0030252876,0.0023554819,0.0028550105,0.0030342882,0.0041458613,0.0057840115,0.0033464391,0.0044186571,0.0034992999,0.0051058099,0.0041967794,0.0043437322,0.0049595373,0.0049152689,0.0045857365,0.0028274183,0.0043121689,0.0029691135,0.0075894495,0.0052859479,0.0023012184,0.0026912454,0.0057883358,0.0053754925,0.0030513473,0.0028730181,0.0022153446,0.0064154576,0.0036893042,0.0043847193,0.0033622963,0.0040921423,0.004720372,0.0042287817,0.0052706279,0.0022171874,0.0034872347,0.0028742447,0.0030358935,0.0046551121,0.0036511466,0.0031969143,0.0025465436,0.0041997981,0.0070357498,0.002877654,0.0079330579,0.0036418106,0.0028510101,0.0048636602,0.0040016434,0.002975319,0.0028742609,0.002930881,0.0045672154,0.0049194665,0.0020801826,0.0072006532,0.0024618099,0.0028873059,0.0036836193,0.0019692726,0.0037749997,0.0031710406,0.0028662316,0.0029350131,0.0029284017,0.0040930793,0.003048517,0.0028146495,0.0033403018,0.0054001552,0.003245598,0.0030355673,0.0038234239,0.0063174949,0.0065359536,0.0037094879,0.003347133,0.0030746932,0.0044968962,0.0011305193,0.0043616299,0.0025513136,0.0001866518,0.0024982353,0.0071284471,0.0031695847,0.0031286621,0.003441704,0.0071167769,0.0046853799,0.0037757255,0.0041290608,0.0047866489,0.004188436,0.0030679485,0.0034052302,0.0031387051,0.0030484284,0.0034644233,0.0050069478,0.0032705058,0.005005132,0.0056791139,0.0029824111,0.002971222,0.0053750688,0.0045258705,0.0036007419,0.0031081026,0.0036484513,0.0052211197,0.0047202982,0.0044454163,0.0039973617,0.0061421137,0.004297343,0.0045695217,0.0043774388,0.0032042459,0.0047558104,0.00320002,0.006866122,0.0032459463,0.0038217152,0.0040095888,0.0056543153,0.0051353281,0.0025162897,0.0081651984,0.0042879458,0.0079594277,0.0025411088,0.004823561,0.0045824772,0.004166752,0.0099273304,0.0043594069,0.0036913543,0.0050842379,0.0022815772,0.0042030456,0.003062839,0.0061732556,0.0041795597,0.0064812743,0.0022757197,0.0050230973,0.0039948184,0.0062316704,0.0044616115,0.0072132762,0.0065308544,0.0105777675,0.0050239997,0.0020920664,0.0026059227,0.003155939,0.0022978198,0.0045464885,0.0026405464,0.0022892313,0.0040262005,0.0033998046,0.003080573,0.0033022188,0.002991634,0.0050852164,0,1,-0.25,-0.5,-0.25,-0.25,0,0,-0.5,-0.25,0,-0.25,0,-0.5,-0.25,-0.5,-0.25,-0.25,0.25,-0.5,-0.25,-0.25,-0.5,-0.5,-0.25,0.25,-0.25,-0.5,-0.25,0,-0.5,-0.5,-0.25,-0.25,-0.5,-0.25,-0.25,0.25,-0.25,-0.5,0,0.5,-0.25,-0.25,-0.25,-0.5,-0.5,-0.5,-0.5,-0.5,0,0,1
outputCount=235
weightIndex=0,470,521
weights=0.4137522706,-0.3560917575,0.5709739045,0.2919049977,-0.6575258906,0.9379550272,-0.5097444514,0.1708898823,0.4306753106,0.10079552,0.5156222601,-0.0138372608,-0.4183802935,0.1058907094,0.330411642,-0.0218491182,19.1162024922,0.4017126453,0.4007143403,-1.2847430617,-0.1829778775,-0.0376459294,-0.6359254136,0.5796665364,-0.37660765,-0.4878008079,-0.1004547568,0.382934439,-0.6103881277,0.3090738892,0.4139324066,0.1092277199,-0.1298076807,-0.0154545245,-0.2354756929,0.3193597319,-0.3729828119,0.2847780965,0.3228975158,0.037693934,0.2053072665,-0.1275839791,-0.1325092416,-0.1220804208,-0.6584590436,-0.2580331955,-0.7774780737,0.1823780423,-0.5363717872,-0.2665021713,-0.3365284621,0.2425367489,-0.9178465532,-0.2748897265,-0.7274827381,0.0568186535,-0.2845481917,-0.2369225416,-0.1284795786,-0.0475522429,0.0416978041,0.621803252,0.5055797972,-0.550836054,0.4364754919,-0.4473677388,0.3524571335,0.1992023639,0.4562704751,-0.0247598916,0.3757690003,-0.1893612215,0.3796168787,-0.0330643143,-0.7138498144,-0.7232061526,-0.6272990862,-0.1664347382,-0.5188791722,-0.3374116963,0.3594357693,0.3896042813,-0.1946345464,-0.2988342629,0.3232464773,0.1070664478,-0.4640636627,0.4460494555,0.264464726,0.587893025,-5.4349543413,0.2697023709,-0.5786339876,-0.3102206984,0.4032362073,0.1149555287,-0.8245771871,0.4905640519,0.6626635272,-0.2027636489,0.6122030087,0.4189676184,0.5156895705,-0.2359039582,-0.0395051764,0.6447041936,-0.0870841465,-0.649868352,0.1051731807,0.3707721065,0.216774944,-0.7332584249,-0.4827051203,-0.3436802406,-0.8896668901,-0.5586771175,-0.3723600361,-0.0545173269,-0.598657556,-0.2162851445,0.3362145477,-0.0428355695,-0.4041303623,0.0327350057,0.3021495592,0.4601698451,-0.4126685488,0.3063017047,-0.5121118857,0.1016345721,0.3918624852,0.9267201525,0.2550462582,-0.3283373168,0.4385067879,-0.5785981285,0.0363171355,-0.3862679668,0.4839445383,-0.3253666259,0.2148134035,-0.0132329223,-0.199530975,0.3197540013,0.4339526467,-0.227446644,0.4612481043,0.0504923539,0.4157442731,-0.1827805678,0.4351270281,0.195035616,-0.1663960671,-0.0010260477,-0.1408917917,0.0333904531,0.2216539653,0.1659689632,0.3539244326,0.1570029754,-0.9884525407,0.0876072552,0.4291115161,-0.3959794382,-0.3312675168,0.0260975211,0.4028956617,-0.3470800607,-0.6532935927,0.5914155792,-0.251484264,0.2297084741,0.2871572523,-0.6019047621,0.4612535597,-0.4453394112,-0.6422079789,0.3205013444,0.4336119996,0.2465067183,-0.9588262752,-0.3197602346,-0.6020206702,-0.3799803902,0.3655760159,-0.639935528,-0.498255908,0.4233668541,-0.8695818925,-0.1299056145,-0.0792971213,0.0427821252,-0.0244111367,-0.2227193111,0.5143412313,-0.0262748477,-0.7929528663,0.1165441301,0.3640396656,0.00657047,-0.0743470186,0.2268060242,-0.4334022987,-0.6391040228,0.6540270347,-0.1862343988,0.0240587585,-0.3795535674,0.1422420773,-0.3248376959,0.5047756597,0.1026225063,-0.1203013649,-0.1403022219,-0.4149298755,-0.2731574265,0.0769753228,-0.5006065082,0.4590568409,-0.0003070309,0.3925894796,0.515660788,0.3423754748,-0.3783680865,-0.8222677039,0.6356950949,0.4142294314,-0.142862502,0.4005493608,-0.3876701383,0.3382179017,0.1464478092,0.1395268114,-0.0486383634,-0.9608779309,-0.3449922214,-0.4900866143,-0.3795479191,-0.2861686472,-0.3600404229,-1.2795644492,0.0835602185,-0.1660345681,0.1578566129,0.4944159055,-0.7028878064,0.445598591,0.5388282645,-0.4994108871,-0.5344466499,-0.7262901025,-0.3750196306,0.2138246193,-0.1314477042,-0.5763418169,-0.7576792439,-0.1129053383,-0.1069431872,-0.1551990791,-0.2812836706,0.4421401285,-0.3823453479,-0.3481009189,-0.3586315655,-0.599866072,-0.3608866855,0.0949211822,-0.0260458997,0.7196888904,-0.3206882361,-0.4002804566,-0.4005057532,-0.4416849338,-0.2292823166,-0.0330495665,0.2510842066,0.5137361545,-0.2580438715,-0.1413529206,-0.3249451628,0.0551518493,-0.0941971593,-0.2007732127,0.4079792797,-0.5843774654,0.4419747796,0.3358154064,-0.1244496554,0.2669958884,-0.2272393243,0.1060307991,-0.3121383404,1.6732734934,0.0680439444,0.7250952648,-1.3126663858,-0.8212189459,0.0375023457,0.4583522898,-0.4987351272,0.4532746956,-3.113853812,-0.5729651563,-0.5197588655,-0.2765391224,0.5287499288,0.4003834773,-0.2817429147,-0.5671044252,-0.2947379943,-0.3045977758,-0.199376778,1.3423506708,0.5271114544,-0.2171108791,0.1091035319,-0.4842952203,-0.1067509364,0.4266122584,-0.0172935121,-0.1300588384,0.1304870748,-0.6959611527,-0.0030160749,-0.7193390623,-0.3143343662,0.0564042572,-0.2100309335,-0.0304264652,-0.2915331372,0.4706903009,-0.3207172874,-0.9936661585,-0.1927973028,-0.1721920903,0.1754830348,0.3503962808,-0.2503988194,-0.555025405,0.1751203021,0.4005066285,0.3014517329,-0.5879408382,-0.3426114073,0.1803187972,-0.3463701718,-0.7051898065,0.2464278997,0.1819250833,0.0744664582,-0.4574241433,-0.1542035784,0.0108418972,-0.301331021,0.4903965261,-0.1410406954,0.7367562177,0.2173684083,-0.3480602965,0.1165284894,0.4552076616,0.0565300426,0.4400973965,-0.0497089014,0.4165885784,0.3798254512,0.4287523971,0.0226534368,-0.3626104718,0.0840650574,0.4838934493,0.041120333,-0.3546362584,-0.2708666956,0.6580240288,0.1240236249,-0.5976164184,-0.2721864296,-0.1150193547,0.4912559793,0.0373124972,-0.2579365677,-0.5876190299,-0.0946441473,-0.5702971008,-0.0466547833,0.0175765475,0.2970755508,1.1011876233,0.2008002607,-0.9172175452,-0.5125580012,0.3374340973,0.6645375466,-0.34665324,0.0204643047,-0.8546081173,0.6390136198,0.0664215396,-0.5027429459,-0.7043558766,0.138168981,0.0992061363,0.0868962372,-0.823865118,-0.0082066411,0.0048909128,0.8599481249,0.4087742072,0.0369925309,0.4027821622,-0.1293500576,0.4343410572,0.1908016677,0.428834786,-0.6104765402,-0.2748178363,0.0004659369,-0.0523222743,-0.31600121,-0.4567132799,0.38488287,0.2823323771,-0.0051375756,0.1944326456,0.433573657,-0.0432635025,-0.6130471349,0.4791958217,0.1787032585,0.2345548207,-0.0503453484,-0.8795932908,0.3943009359,0.465262708,0.0601665414,0.3907010699,0.5405797627,0.4382657534,0.4411942948,0.4250419968,0.9234109164,-0.7932287813,0.1788828917,-0.5691298658,-0.6971911903,0.3648650369,-0.4775566558,-0.5983709266,-0.2860573977,-0.8491427371,-0.6033827195,0.3678633077,0.0790116898,-0.2024489083,-0.4643575969,0.3466975837,-0.6071273899,-0.1716525649,-0.042520344,-0.1859093954,-0.2116255338,0.5573782,-0.3102278528,-0.046785267,-0.2407488776,-0.898772059,-0.3395237512,0.4032100394,0.1909941096,24.9125601111,39.4620698401,-11.358366133,-13.2391126121,8.3250055901,-4.6008901876,15.6579014265,6.255943449,9.4603568834,5.5364251945,16.7253774461,0.3061910599,25.082774965,15.0486675422,-14.4745842578,7.8027863861,40.1447602035,-2.9900706083,-8.426806742,14.2161423904,16.8138515095,-6.9584499089,12.7930444413,-3.035476007,-7.4310499311,4.63734499,29.7321275516,16.1364529013,-0.0375578418,1.242530632,34.7282623325,-11.4056889425,11.380654345,21.0523641627,-7.6986319021,27.0943534646,20.6238332553,6.1243083749,-10.3266873293,-15.8283128949,-7.9312558817,-7.231965607,6.0717022419,11.2658933364,-5.765011407,0.0178057651,13.9989756643,26.4225201552,18.5233736634,3.7433640133,-33.7065992728
biasActivation=0,1,1
[BASIC:ACTIVATION]
"org.encog.engine.network.activation.ActivationSoftMax"
"org.encog.engine.network.activation.ActivationReLU",0,0
"org.encog.engine.network.activation.ActivationReLU",0,0
